digraph Tree {
0 [label="X[5] <= 0.3518\ngini = 0.7926\nsamples = 100", shape="box"] ;
1 [label="X[9] <= 0.3190\ngini = 0.763157894737\nsamples = 38", shape="box"] ;
0 -> 1 ;
2 [label="X[1] <= 0.2278\ngini = 0.5625\nsamples = 8", shape="box"] ;
1 -> 2 ;
3 [label="X[8] <= 0.3409\ngini = 0.75\nsamples = 4", shape="box"] ;
2 -> 3 ;
4 [label="gini = 0.0000\nsamples = 1\nvalue = [ 1.  0.  0.  0.  0.]", shape="box"] ;
3 -> 4 ;
5 [label="X[3] <= 0.3155\ngini = 0.666666666667\nsamples = 3", shape="box"] ;
3 -> 5 ;
6 [label="gini = 0.0000\nsamples = 1\nvalue = [ 0.  0.  0.  0.  1.]", shape="box"] ;
5 -> 6 ;
7 [label="X[3] <= 0.5430\ngini = 0.5\nsamples = 2", shape="box"] ;
5 -> 7 ;
8 [label="gini = 0.0000\nsamples = 1\nvalue = [ 0.  0.  1.  0.  0.]", shape="box"] ;
7 -> 8 ;
9 [label="gini = 0.0000\nsamples = 1\nvalue = [ 0.  0.  0.  1.  0.]", shape="box"] ;
7 -> 9 ;
10 [label="gini = 0.0000\nsamples = 4\nvalue = [ 0.  0.  4.  0.  0.]", shape="box"] ;
2 -> 10 ;
11 [label="X[9] <= 0.6706\ngini = 0.702222222222\nsamples = 30", shape="box"] ;
1 -> 11 ;
12 [label="X[9] <= 0.4673\ngini = 0.609375\nsamples = 16", shape="box"] ;
11 -> 12 ;
13 [label="X[1] <= 0.3766\ngini = 0.625\nsamples = 4", shape="box"] ;
12 -> 13 ;
14 [label="gini = 0.0000\nsamples = 2\nvalue = [ 0.  2.  0.  0.  0.]", shape="box"] ;
13 -> 14 ;
15 [label="X[9] <= 0.4237\ngini = 0.5\nsamples = 2", shape="box"] ;
13 -> 15 ;
16 [label="gini = 0.0000\nsamples = 1\nvalue = [ 0.  0.  0.  0.  1.]", shape="box"] ;
15 -> 16 ;
17 [label="gini = 0.0000\nsamples = 1\nvalue = [ 0.  0.  0.  1.  0.]", shape="box"] ;
15 -> 17 ;
18 [label="X[7] <= 0.8901\ngini = 0.402777777778\nsamples = 12", shape="box"] ;
12 -> 18 ;
19 [label="X[9] <= 0.6520\ngini = 0.18\nsamples = 10", shape="box"] ;
18 -> 19 ;
20 [label="gini = 0.0000\nsamples = 9\nvalue = [ 9.  0.  0.  0.  0.]", shape="box"] ;
19 -> 20 ;
21 [label="gini = 0.0000\nsamples = 1\nvalue = [ 0.  0.  0.  1.  0.]", shape="box"] ;
19 -> 21 ;
22 [label="X[1] <= 0.5092\ngini = 0.5\nsamples = 2", shape="box"] ;
18 -> 22 ;
23 [label="gini = 0.0000\nsamples = 1\nvalue = [ 0.  0.  0.  1.  0.]", shape="box"] ;
22 -> 23 ;
24 [label="gini = 0.0000\nsamples = 1\nvalue = [ 0.  1.  0.  0.  0.]", shape="box"] ;
22 -> 24 ;
25 [label="X[1] <= 0.9129\ngini = 0.622448979592\nsamples = 14", shape="box"] ;
11 -> 25 ;
26 [label="X[4] <= 0.1739\ngini = 0.32\nsamples = 10", shape="box"] ;
25 -> 26 ;
27 [label="X[9] <= 0.8142\ngini = 0.444444444444\nsamples = 3", shape="box"] ;
26 -> 27 ;
28 [label="gini = 0.0000\nsamples = 1\nvalue = [ 0.  1.  0.  0.  0.]", shape="box"] ;
27 -> 28 ;
29 [label="gini = 0.0000\nsamples = 2\nvalue = [ 2.  0.  0.  0.  0.]", shape="box"] ;
27 -> 29 ;
30 [label="gini = 0.0000\nsamples = 7\nvalue = [ 0.  7.  0.  0.  0.]", shape="box"] ;
26 -> 30 ;
31 [label="X[2] <= 0.4850\ngini = 0.625\nsamples = 4", shape="box"] ;
25 -> 31 ;
32 [label="gini = 0.0000\nsamples = 2\nvalue = [ 0.  0.  0.  0.  2.]", shape="box"] ;
31 -> 32 ;
33 [label="X[3] <= 0.0288\ngini = 0.5\nsamples = 2", shape="box"] ;
31 -> 33 ;
34 [label="gini = 0.0000\nsamples = 1\nvalue = [ 0.  0.  0.  1.  0.]", shape="box"] ;
33 -> 34 ;
35 [label="gini = 0.0000\nsamples = 1\nvalue = [ 0.  0.  1.  0.  0.]", shape="box"] ;
33 -> 35 ;
36 [label="X[2] <= 0.8794\ngini = 0.760665972945\nsamples = 62", shape="box"] ;
0 -> 36 ;
37 [label="X[3] <= 0.0492\ngini = 0.775537190083\nsamples = 55", shape="box"] ;
36 -> 37 ;
38 [label="X[7] <= 0.4725\ngini = 0.408163265306\nsamples = 7", shape="box"] ;
37 -> 38 ;
39 [label="gini = 0.0000\nsamples = 2\nvalue = [ 0.  0.  2.  0.  0.]", shape="box"] ;
38 -> 39 ;
40 [label="gini = 0.0000\nsamples = 5\nvalue = [ 0.  0.  0.  0.  5.]", shape="box"] ;
38 -> 40 ;
41 [label="X[2] <= 0.1945\ngini = 0.788194444444\nsamples = 48", shape="box"] ;
37 -> 41 ;
42 [label="X[9] <= 0.1810\ngini = 0.733564013841\nsamples = 17", shape="box"] ;
41 -> 42 ;
43 [label="gini = 0.0000\nsamples = 3\nvalue = [ 0.  0.  0.  0.  3.]", shape="box"] ;
42 -> 43 ;
44 [label="X[4] <= 0.3303\ngini = 0.714285714286\nsamples = 14", shape="box"] ;
42 -> 44 ;
45 [label="gini = 0.0000\nsamples = 3\nvalue = [ 0.  0.  0.  3.  0.]", shape="box"] ;
44 -> 45 ;
46 [label="X[8] <= 0.6800\ngini = 0.710743801653\nsamples = 11", shape="box"] ;
44 -> 46 ;
47 [label="X[1] <= 0.1366\ngini = 0.53125\nsamples = 8", shape="box"] ;
46 -> 47 ;
48 [label="X[3] <= 0.1308\ngini = 0.5\nsamples = 2", shape="box"] ;
47 -> 48 ;
49 [label="gini = 0.0000\nsamples = 1\nvalue = [ 0.  0.  0.  1.  0.]", shape="box"] ;
48 -> 49 ;
50 [label="gini = 0.0000\nsamples = 1\nvalue = [ 0.  0.  1.  0.  0.]", shape="box"] ;
48 -> 50 ;
51 [label="X[9] <= 0.8917\ngini = 0.277777777778\nsamples = 6", shape="box"] ;
47 -> 51 ;
52 [label="gini = 0.0000\nsamples = 5\nvalue = [ 0.  5.  0.  0.  0.]", shape="box"] ;
51 -> 52 ;
53 [label="gini = 0.0000\nsamples = 1\nvalue = [ 0.  0.  0.  1.  0.]", shape="box"] ;
51 -> 53 ;
54 [label="X[4] <= 0.4361\ngini = 0.444444444444\nsamples = 3", shape="box"] ;
46 -> 54 ;
55 [label="gini = 0.0000\nsamples = 1\nvalue = [ 1.  0.  0.  0.  0.]", shape="box"] ;
54 -> 55 ;
56 [label="gini = 0.0000\nsamples = 2\nvalue = [ 0.  0.  0.  0.  2.]", shape="box"] ;
54 -> 56 ;
57 [label="X[8] <= 0.5656\ngini = 0.753381893861\nsamples = 31", shape="box"] ;
41 -> 57 ;
58 [label="X[6] <= 0.2191\ngini = 0.648760330579\nsamples = 22", shape="box"] ;
57 -> 58 ;
59 [label="gini = 0.0000\nsamples = 6\nvalue = [ 0.  0.  6.  0.  0.]", shape="box"] ;
58 -> 59 ;
60 [label="X[2] <= 0.3338\ngini = 0.7109375\nsamples = 16", shape="box"] ;
58 -> 60 ;
61 [label="X[2] <= 0.2462\ngini = 0.32\nsamples = 5", shape="box"] ;
60 -> 61 ;
62 [label="gini = 0.0000\nsamples = 1\nvalue = [ 0.  0.  0.  1.  0.]", shape="box"] ;
61 -> 62 ;
63 [label="gini = 0.0000\nsamples = 4\nvalue = [ 0.  0.  4.  0.  0.]", shape="box"] ;
61 -> 63 ;
64 [label="X[0] <= 0.4666\ngini = 0.611570247934\nsamples = 11", shape="box"] ;
60 -> 64 ;
65 [label="X[9] <= 0.6734\ngini = 0.56\nsamples = 5", shape="box"] ;
64 -> 65 ;
66 [label="gini = 0.0000\nsamples = 3\nvalue = [ 3.  0.  0.  0.  0.]", shape="box"] ;
65 -> 66 ;
67 [label="X[2] <= 0.5541\ngini = 0.5\nsamples = 2", shape="box"] ;
65 -> 67 ;
68 [label="gini = 0.0000\nsamples = 1\nvalue = [ 0.  0.  0.  0.  1.]", shape="box"] ;
67 -> 68 ;
69 [label="gini = 0.0000\nsamples = 1\nvalue = [ 0.  0.  1.  0.  0.]", shape="box"] ;
67 -> 69 ;
70 [label="X[7] <= 0.0297\ngini = 0.277777777778\nsamples = 6", shape="box"] ;
64 -> 70 ;
71 [label="gini = 0.0000\nsamples = 1\nvalue = [ 0.  0.  0.  1.  0.]", shape="box"] ;
70 -> 71 ;
72 [label="gini = 0.0000\nsamples = 5\nvalue = [ 0.  0.  0.  0.  5.]", shape="box"] ;
70 -> 72 ;
73 [label="X[3] <= 0.8269\ngini = 0.691358024691\nsamples = 9", shape="box"] ;
57 -> 73 ;
74 [label="X[4] <= 0.5102\ngini = 0.444444444444\nsamples = 6", shape="box"] ;
73 -> 74 ;
75 [label="gini = 0.0000\nsamples = 3\nvalue = [ 0.  3.  0.  0.  0.]", shape="box"] ;
74 -> 75 ;
76 [label="X[7] <= 0.2355\ngini = 0.444444444444\nsamples = 3", shape="box"] ;
74 -> 76 ;
77 [label="gini = 0.0000\nsamples = 1\nvalue = [ 0.  1.  0.  0.  0.]", shape="box"] ;
76 -> 77 ;
78 [label="gini = 0.0000\nsamples = 2\nvalue = [ 2.  0.  0.  0.  0.]", shape="box"] ;
76 -> 78 ;
79 [label="X[3] <= 0.9033\ngini = 0.444444444444\nsamples = 3", shape="box"] ;
73 -> 79 ;
80 [label="gini = 0.0000\nsamples = 2\nvalue = [ 0.  0.  0.  2.  0.]", shape="box"] ;
79 -> 80 ;
81 [label="gini = 0.0000\nsamples = 1\nvalue = [ 0.  0.  1.  0.  0.]", shape="box"] ;
79 -> 81 ;
82 [label="X[7] <= 0.8244\ngini = 0.244897959184\nsamples = 7", shape="box"] ;
36 -> 82 ;
83 [label="gini = 0.0000\nsamples = 6\nvalue = [ 0.  0.  0.  0.  6.]", shape="box"] ;
82 -> 83 ;
84 [label="gini = 0.0000\nsamples = 1\nvalue = [ 1.  0.  0.  0.  0.]", shape="box"] ;
82 -> 84 ;
}